/*
 * Copyright (c) 2018, Alliance for Open Media. All rights reserved
 *
 * This source code is subject to the terms of the BSD 2 Clause License and
 * the Alliance for Open Media Patent License 1.0. If the BSD 2 Clause License
 * was not distributed with this source code in the LICENSE file, you can
 * obtain it at www.aomedia.org/license/software. If the Alliance for Open
 * Media Patent License 1.0 was not distributed with this source code in the
 * PATENTS file, you can obtain it at www.aomedia.org/license/patent.
 */

#ifndef AOM_AV1_ENCODER_PARTITION_MODEL_WEIGHTS_H_
#define AOM_AV1_ENCODER_PARTITION_MODEL_WEIGHTS_H_

#ifdef __cplusplus
extern "C" {
#endif

#include "ml.h"

// nn model for predicting max square partition level of a superblock
#define NUM_HIDDEN_LAYERS 1
#define NUM_FEATURES 13
#define NUM_LAYER_0_UNITS 48
#define NUM_LOGITS 4

static const float av1_max_part_pred_logits_kernel[] = {
  -0.304561f,   0.0885596f,   -0.988539f,   1.08147f,    0.215213f,
  0.202965f,    -0.828457f,   -0.233945f,   -0.0866977f, -0.115521f,
  0.02079f,     0.196491f,    -0.0285075f,  0.05067f,    -0.00872862f,
  0.00281844f,  -0.238954f,   0.0253801f,   0.0257775f,  0.339269f,
  0.176174f,    -0.152545f,   -0.0588704f,  -1.62275f,   -0.189329f,
  0.0808033f,   0.233844f,    -4.53798f,    0.674968f,   -0.0361688f,
  -0.0754075f,  1.16129f,     -0.0188879f,  0.113255f,   -3.04378f,
  0.814728f,    -0.568517f,   -0.00179383f, -3.61223f,   -1.67535f,
  -2.20417f,    -0.197196f,   0.0507745f,   -0.0909394f, -0.0507879f,
  -1.27999f,    -0.055623f,   0.0318497f,   0.192867f,   0.138726f,
  0.0443392f,   -0.595075f,   -0.166774f,   0.0882958f,  -0.348161f,
  0.0214428f,   -0.0599275f,  -0.0995385f,  -0.82358f,   0.141205f,
  -0.053232f,   0.00508296f,  -1.90872f,    1.15004f,    -0.194219f,
  0.0229019f,   -0.00354318f, 0.22016f,     0.154101f,   -0.159231f,
  -0.0446647f,  -0.197503f,   0.0408453f,   0.197659f,   0.797858f,
  -0.189722f,   0.343653f,    0.124666f,    -1.03083f,   0.603059f,
  0.101565f,    0.0932993f,   0.462484f,    0.295984f,   1.11198f,
  0.143709f,    -0.846232f,   -0.464392f,   -1.06058f,   -0.124889f,
  0.0727475f,   1.18446f,     -0.100302f,   0.0641918f,  -0.101622f,
  0.10219f,     0.130189f,    0.0915623f,   -0.166904f,  -1.10606f,
  -0.16726f,    -0.146152f,   0.145443f,    -0.177091f,  -0.0215214f,
  0.0158506f,   -0.553294f,   0.0784749f,   -0.0416628f, -0.027785f,
  0.280027f,    0.484898f,    -0.164225f,   0.0238317f,  -0.0345254f,
  0.0410244f,   0.131529f,    0.0239622f,   -0.0749436f, -0.0224914f,
  0.128926f,    0.224539f,    0.413297f,    0.0638572f,  0.103308f,
  0.0913242f,   -0.119274f,   0.0163103f,   0.113828f,   0.119809f,
  0.297057f,    -0.124889f,   -0.533108f,   -0.181408f,  -0.129896f,
  0.0221064f,   -0.0773281f,  -0.0386467f,  0.0342961f,  0.126575f,
  -0.24114f,    0.0735576f,   0.0524791f,   0.246896f,   -0.130674f,
  -0.03979f,    0.173639f,    1.95193f,     -0.113029f,  -0.0305852f,
  -0.00671737f, 0.157159f,    -0.00102858f, -0.543688f,  0.566772f,
  0.124124f,    -0.0294064f,  -0.0699021f,  -0.0704103f, -0.766097f,
  -0.0625802f,  -0.0906173f,  -0.0520414f,  -0.0272724f, 0.283064f,
  0.236213f,    -0.127319f,   0.019392f,    0.170042f,   -0.0214542f,
  0.0740938f,   0.356578f,    -0.236257f,   0.269021f,   0.114759f,
  -0.641166f,   0.136308f,    -0.0386959f,  -0.112024f,  -0.361209f,
  0.686095f,    0.183906f,    0.288656f,    0.182007f,   0.337458f,
  0.058974f,    -0.305512f,   -0.841708f,   -0.243779f,  -0.0614058f,
  0.208747f,    0.448697f
};

static const float av1_max_part_pred_layer_0_bias[] = {
  -0.776544f, -2.0022f,    -0.330294f, 2.47665f,  1.90206f,   -1.61571f,
  0.536246f,  1.00455f,    5.24561f,   1.55111f,  -0.816399f, -4.88703f,
  -1.06417f,  -1.15359f,   -0.145289f, 1.91831f,  0.630915f,  -1.94256f,
  -3.35239f,  -1.05007f,   -1.05186f,  1.36824f,  -5.2878f,   1.10482f,
  -5.00077f,  -0.0445198f, 3.41427f,   2.3439f,   -0.413306f, -1.88152f,
  -2.28638f,  8.24783f,    -1.91961f,  -1.49324f, 1.96599f,   -6.32309f,
  -0.332426f, -0.425506f,  4.06511f,   5.84386f,  4.15747f,   1.22402f,
  2.8512f,    2.53027f,    0.0170272f, -1.43966f, -0.997785f, 5.43064f
};

static const float av1_max_part_pred_logits_bias[] = { -4.25432f, 0.144758f,
                                                       1.96217f, 0.728905f };

static const float av1_max_part_pred_layer_0_kernel[] = {
  0.992471f,    0.533006f,    0.143743f,     -2.51788f,    -0.468337f,
  -0.201376f,   -0.151834f,   0.479883f,     1.16061f,     -0.278878f,
  -0.814954f,   -0.152405f,   -0.0521608f,   0.797104f,    -2.08912f,
  0.385839f,    -2.22889f,    -0.106858f,    -0.239766f,   -0.951128f,
  -0.698753f,   0.0831051f,   1.1702f,       0.342834f,    -0.0352795f,
  -0.0847639f,  -0.802086f,   0.258982f,     1.14174f,     0.645885f,
  -1.19226f,    -0.592888f,   -0.343659f,    1.1912f,      1.45411f,
  -1.22927f,    0.152858f,    0.00373585f,   -1.60637f,    0.592611f,
  0.0857475f,   -0.346147f,   -0.150784f,    -0.0817408f,  -0.189918f,
  -0.804952f,   -1.33036f,    -1.03307f,     0.0248769f,   0.16607f,
  -2.896f,      -2.1293f,     0.12293f,      -0.173179f,   -0.212128f,
  -6.76221f,    0.033188f,    0.0231787f,    0.905957f,    0.0551327f,
  -0.356276f,   0.0181795f,   0.0977523f,    -0.0352873f,  -0.0396386f,
  2.3241f,      0.0632874f,   -0.11804f,     -6.32521f,    0.0224659f,
  -0.00188896f, 0.267992f,    0.272337f,     0.00936963f,  0.659969f,
  -2.25707f,    -0.0278229f,  -0.0185089f,   -1.14466f,    0.104827f,
  0.0435885f,   0.558586f,    -0.00697004f,  0.0312611f,   0.540574f,
  -0.568625f,   0.218608f,    0.378911f,     -0.0289192f,  -0.0734742f,
  -1.08782f,    -2.42069f,    -0.0127239f,   0.0493651f,   -1.15837f,
  0.261831f,    0.401824f,    -1.04545f,     0.284173f,    0.784972f,
  -0.511243f,   -0.982599f,   -0.106134f,    -0.325964f,   -1.44107f,
  -1.42434f,    -1.02402f,    -1.52034f,     0.0737116f,   0.0462242f,
  0.628722f,    -1.0405f,     -0.113718f,    2.20573f,     -4.33951f,
  -0.0192695f,  -0.0229314f,  -1.89156f,     0.645942f,    0.375708f,
  -1.97447f,    -0.267014f,   0.0989443f,    -0.450534f,   -1.01737f,
  -0.642416f,   -0.0897288f,  -2.08724f,     -0.190965f,   -0.279135f,
  -0.830178f,   0.808754f,    -0.139091f,    1.11004f,     -0.454439f,
  -0.479238f,   -1.44001f,    0.0888059f,    0.885689f,    -0.642505f,
  -0.00773651f, -0.0265721f,  -0.906346f,    1.68504f,     0.084257f,
  -0.951101f,   -8.06495f,    0.19231f,      0.16389f,     -0.193678f,
  0.729837f,    -1.98392f,    -5.98513f,     3.32638f,     -0.0658378f,
  -0.0910426f,  -0.666567f,   -0.315339f,    0.123124f,    -2.66375f,
  -0.714852f,   -0.136176f,   -0.460166f,    -0.567551f,   -1.06193f,
  -1.21389f,    -0.83865f,    0.00280695f,   -0.199519f,   -0.534704f,
  0.419311f,    -0.149008f,   -3.68707f,     0.00285113f,  -0.0718198f,
  -1.41026f,    -1.34155f,    -0.538687f,    -0.623666f,   -2.56462f,
  -0.0183333f,  -0.323532f,   -1.27141f,     -0.0212039f,  0.198633f,
  0.459554f,    -4.65103f,    -1.01293f,     -1.39512f,    -0.289026f,
  0.208724f,    -0.665226f,   1.13369f,      -1.96734f,    -1.45442f,
  -3.46172f,    0.810681f,    -0.603973f,    0.842764f,    -3.90371f,
  -0.394561f,   -3.61363f,    -2.88085f,     0.031645f,    -0.23125f,
  -2.63898f,    -1.35314f,    -0.46726f,     1.33145f,     1.20269f,
  1.38682f,     -0.331637f,   0.069021f,     0.149523f,    -1.24957f,
  -0.878857f,   -0.200368f,   0.465744f,     1.01365f,     -0.0122221f,
  -0.550586f,   -1.12581f,    -0.422132f,    -0.0744868f,  -2.4804f,
  -1.07072f,    -0.479006f,   0.101817f,     -0.118947f,   0.341576f,
  -1.0538f,     -0.812346f,   -1.13727f,     -0.00939806f, 10.1571f,
  -0.0441302f,  0.00280407f,  -21.5044f,     0.0181152f,   -0.0143246f,
  3.23462f,     -1.38624f,    -1.80416f,     4.89763f,     -2.67364f,
  2.31771e-05f, 0.000393989f, 0.352204f,     -0.193455f,   0.531455f,
  0.488757f,    -0.442555f,   -0.518528f,    0.431482f,    -2.67727f,
  -2.00626f,    -0.39729f,    -0.221494f,    -0.0188888f,  -0.0377649f,
  -1.80169f,    0.0810332f,   -0.0408335f,   -1.28675f,    -0.0353824f,
  -0.666723f,   -1.07281f,    0.252912f,     -1.24547f,    -1.7831f,
  -1.14354f,    -0.137662f,   0.00230182f,   0.736862f,    0.175872f,
  -0.187556f,   0.43963f,     -0.796524f,    0.056219f,    -0.387874f,
  0.0710224f,   -0.16548f,    -0.100993f,    0.931481f,    -3.20738f,
  -0.0197576f,  0.266148f,    -0.173909f,    -0.337795f,   -0.0682381f,
  0.176844f,    0.140286f,    1.12033f,      0.429064f,    -2.24192f,
  -1.54682f,    2.23646f,     -0.0371138f,   -0.0475339f,  -3.21766f,
  0.0412858f,   0.387811f,    6.6711f,       0.140649f,    0.0559547f,
  -0.802839f,   0.599977f,    0.64552f,      -2.08103f,    -0.503401f,
  -0.0407036f,  -0.0299199f,  0.0849445f,    -0.111657f,   -1.63462f,
  3.33762f,     0.0441394f,   0.0466889f,    -0.951806f,   0.0723954f,
  0.00348661f,  -1.36903f,    2.24625f,      -0.0348915f,  -0.0508893f,
  -0.240891f,   -0.120143f,   -0.17991f,     -2.09137f,    0.0150871f,
  0.0480333f,   1.72012f,     0.0309551f,    -0.0370507f,  -0.377075f,
  0.103916f,    -0.0169255f,  -0.0145395f,   -4.02144f,    0.83193f,
  -0.316502f,   6.3832f,      -1.70038f,     -1.97215f,    -1.94501f,
  1.45479f,     0.711725f,    -0.348496f,    -0.279056f,   -1.13396f,
  -1.51744f,    -0.853307f,   1.53131f,      -0.0032358f,  1.41808f,
  -1.32989f,    -0.245221f,   -0.161614f,    -0.500845f,   -0.449252f,
  0.0724151f,   -0.116333f,   -0.0946182f,   -2.0945f,     0.0564572f,
  0.393261f,    -1.06861f,    -0.111458f,    -0.839943f,   -0.0880348f,
  0.0365742f,   0.415339f,    -1.57494f,     -0.713697f,   1.02349f,
  -0.221371f,   -0.0446281f,  1.89223f,      -0.0811754f,  -0.402773f,
  -0.930987f,   0.0243194f,   0.0678332f,    -0.0233014f,  0.165372f,
  -0.44083f,    -1.2404f,     0.35675f,      -0.040916f,   -0.0512548f,
  -2.9071f,     0.861174f,    -0.778133f,    2.14436f,     -0.688427f,
  -0.480371f,   -1.69032f,    0.706687f,     -0.281982f,   -2.30451f,
  1.61541f,     -0.0213638f,  -0.740509f,    -0.266677f,   0.0268434f,
  -0.0116908f,  -3.17595f,    0.0114825f,    0.0196997f,   -0.144005f,
  0.0550181f,   -0.851459f,   -0.000285073f, -0.538441f,   -0.0254868f,
  -0.0104454f,  -0.0661998f,  -0.196469f,    -0.346372f,   -5.52892f,
  -0.643683f,   -0.622224f,   -0.31463f,     -0.555956f,   -0.520132f,
  -0.843166f,   -2.59479f,    -0.750195f,    0.00635995f,  -0.338615f,
  -0.216676f,   -0.391544f,   -1.62185f,     -0.718471f,   -0.475406f,
  -0.782041f,   -0.608824f,   -1.09633f,     -1.27308f,    -0.560719f,
  -0.207539f,   -0.0196445f,  -1.05519f,     -0.575249f,   -1.0642f,
  1.01615f,     -0.873633f,   -0.417953f,    -0.428051f,   0.350259f,
  -2.53833f,    -2.72203f,    0.672846f,     -0.503094f,   -1.1374f,
  0.214291f,    0.013305f,    0.0112064f,    1.10532f,     0.030455f,
  0.0239614f,   0.628072f,    0.0539135f,    -0.472441f,   -0.688439f,
  -0.32044f,    -0.0234867f,  -0.0158436f,   -0.949314f,   -0.0453161f,
  -1.18306f,    0.626845f,    -0.426925f,    -0.688371f,   0.415062f,
  0.0640985f,   -0.638387f,   -2.01399f,     -0.209744f,   -0.762892f,
  -0.0753296f,  -0.879315f,   -0.520433f,    -0.111375f,   0.389742f,
  -0.398862f,   -0.643227f,   -0.246396f,    0.0317051f,   1.06973f,
  0.413617f,    0.180506f,    -0.0507897f,   -0.00650435f, 0.620892f,
  0.046312f,    0.475032f,    0.906993f,     -0.0388061f,  -0.256271f,
  -1.03323f,    0.0125266f,   -0.31116f,     -0.377611f,   -0.0386407f,
  -0.0232745f,  -0.353644f,   -2.27289f,     0.0571779f,   -0.00865006f,
  1.65101f,     0.0175711f,   0.0184585f,    0.558458f,    0.2213f,
  -0.285089f,   0.433445f,    -0.427177f,    -0.0103682f,  -0.0101273f,
  0.214085f,    -0.0459885f,  0.00761981f,   0.836381f,    0.0175293f,
  0.02508f,     -1.51778f,    0.0143956f,    -0.162589f,   0.595418f,
  0.21445f,     -0.0335848f,  -0.0136684f,   -0.16686f,    -0.14612f,
  0.0816238f,   0.499636f,    0.12458f,      -2.41673f,    -0.261721f,
  -0.676805f,   -1.88366f,    0.730462f,     0.69196f,     -0.0288489f,
  -2.38272f,    0.329876f,    0.014517f,     -0.115145f,   -3.48151f,
  -0.00209072f, -0.0732377f,  0.820443f,     -0.0118701f,  0.112145f,
  0.272315f,    0.137531f,    -0.0200997f,   -0.0397883f,  -2.19458f,
  0.183554f,    -0.639716f,   0.481605f,     -0.621639f,   -0.0980299f,
  -0.710534f,   -0.143105f,   -6.77626f,     -1.65139f,    -2.37718f,
  -0.533127f,   -1.12574f,    3.34182f,      -0.0758663f,  0.0334238f,
  -9.48647f,    0.0674974f,   0.0507665f,    0.523007f,    -0.0668f,
  0.5736f,      -0.589761f,   -1.1692f,      -0.0236497f,  -0.00828928f,
  -0.265823f,   1.15284f,     0.307927f,     -0.695308f,   0.13725f,
  -0.20394f,    -0.363965f,   -0.331159f,    -1.50927f,    -1.20051f,
  -0.0205825f,  -0.0381859f,  -0.0579876f,   -1.6913f,     -1.94626f,
  3.4214f,      3.3922f,      -2.13798f,     -0.679848f,   -0.890735f,
  0.235017f,    -0.253202f,   -1.0571f,      1.40354f,     0.00719052f,
  -1.54365f,    -0.7289f,     -1.05492f,     0.0238169f,   -0.00543592f,
  -0.0510353f,  -0.175386f,   -0.724207f,    -0.788936f,   0.039976f,
  1.36966f,     0.869475f,    -0.0302774f,   -0.0537556f
};

static const NN_CONFIG av1_max_part_pred_nn_config = {
  NUM_FEATURES,
  NUM_LOGITS,
  NUM_HIDDEN_LAYERS,
  {
      NUM_LAYER_0_UNITS,
  },
  {
      av1_max_part_pred_layer_0_kernel,
      av1_max_part_pred_logits_kernel,
  },
  {
      av1_max_part_pred_layer_0_bias,
      av1_max_part_pred_logits_bias,
  },
};

static const float automax_partition_epoch_10_weights_layer0[624] = {
-2.2060065f,1.216685f,-0.14169352f,2.6000366f,-0.42763165f,-0.32948607f,-1.553282f,-0.1565861f,-2.4738395f,-2.491412f,-0.06879275f,-0.63812643f,-0.58262485f,-3.290676f,0.15535039f,0.41422376f,5.404558f,-0.17282885f,0.0835649f,-3.0520067f,0.01427467f,0.72944623f,-1.8113679f,-0.060641605f,-0.1628105f,-0.058937978f,-0.625982f,0.555871f,-1.0174141f,-7.407943f,0.10797569f,0.09271406f,-2.7997181f,0.4346484f,-1.8349745f,-0.8796407f,1.2884554f,-0.05506116f,-0.0926673f,-5.2380934f,0.1569873f,-0.013414957f,4.4103646f,0.0607738f,0.06395966f,1.1079913f,0.5960203f,-0.83873945f,0.87318224f,-0.81102055f,-0.032317836f,-0.03399403f,-0.30456132f,-0.18587409f,0.05837922f,-0.16927174f,-0.21877511f,0.0063068843f,0.063724644f,0.056012414f,-0.049317125f,-0.38102224f,-0.0774001f,-0.001093994f,-0.066501565f,-1.9030763f,0.07334254f,0.009108197f,0.9100204f,-0.030042538f,0.07425075f,0.46336246f,-0.548979f,0.13899921f,0.9476664f,0.04161597f,-0.048882477f,-1.701304f,0.004658944f,0.35997677f,0.3228976f,-0.10722232f,-0.12675905f,-0.45714775f,-1.5060365f,0.035080384f,-0.52374595f,-0.4487354f,0.024123939f,-0.54596454f,-0.34078628f,-0.1553797f,-0.16044429f,-0.045493085f,-0.66040814f,-0.12634033f,-0.42930332f,-0.12467792f,-0.01737244f,-0.24932663f,-0.3697075f,-0.32995698f,-0.045763936f,-0.021828923f,-0.8976951f,0.5203884f,0.70052016f,0.74658835f,0.17851828f,-0.9882965f,0.5846442f,-0.22580741f,-0.39516285f,-0.36788923f,0.45314828f,-0.021490535f,-0.2176896f,-1.3456521f,1.6543363f,0.46431506f,-0.7559562f,0.20320049f,-0.29805598f,0.14066242f,-0.46038008f,-2.2461424f,-1.6910604f,-0.33108568f,-0.058687113f,-0.08839566f,-3.2944663f,-1.194962f,-1.1325405f,0.06969637f,0.1739537f,0.043596104f,0.33274084f,-1.0649216f,0.040504795f,2.0628946f,-1.3786247f,-0.02750898f,-0.037969664f,-0.29271135f,-0.09898081f,0.067888536f,-0.5245928f,-0.29833642f,-0.55567074f,-0.4986917f,-0.19683924f,-0.18030696f,-0.06936226f,-0.5156734f,-0.4088279f,0.0051715616f,-4.413278f,0.05928908f,0.5250458f,9.489137f,0.20841993f,0.113841556f,-1.2139378f,0.87793225f,0.96762556f,-3.0777938f,-0.5228096f,-0.06467162f,-0.041193876f,-0.8532743f,-0.23142512f,0.53881717f,1.7604189f,-0.35335973f,-0.34129712f,-0.92490053f,-0.4754387f,-0.15646137f,-0.93522555f,0.3781483f,-0.024368655f,-0.029910872f,-0.2200441f,0.33773273f,0.24499246f,-0.57010067f,-0.23914522f,-0.22515377f,-1.971852f,0.3459068f,-1.1967089f,0.20149672f,0.19251068f,-1.318514f,-1.2533579f,0.91058046f,0.05663529f,0.64614713f,1.2650425f,-0.017860558f,-0.35930893f,-1.6116444f,-0.005828586f,-0.365922f,-0.40290448f,0.24185476f,-0.055725537f,-0.53850514f,-1.8014123f,0.39717066f,-0.45487297f,1.6926266f,0.12379643f,-0.31398734f,-1.3605692f,0.09597184f,0.47868755f,-2.062519f,-0.27409282f,-0.5043902f,-1.1276803f,-0.47409284f,-0.14859109f,-0.010617186f,-0.4760841f,-0.090153255f,-0.3043928f,-0.5233458f,-0.44378865f,-0.11834545f,0.17648381f,-0.20018815f,-0.26797265f,-0.0017569693f,0.23912698f,-1.4304613f,0.05368767f,-0.29186913f,-0.124178015f,-0.21137676f,-0.283642f,-1.0068204f,0.28667045f,0.26198822f,0.61226934f,-0.050308138f,-0.0867222f,-0.14879753f,-0.15797555f,0.1958037f,-0.021963844f,-0.3758502f,-0.1797064f,-0.5726046f,-0.20753965f,-0.20164636f,-0.41486552f,0.056986026f,-0.025284627f,-0.0030230335f,-1.5490668f,2.6370811f,-0.011564402f,2.511032f,-2.2678752f,-0.48427346f,-0.27313796f,-0.7630334f,-0.68175703f,0.16253863f,-0.19738978f,-0.19769692f,-3.6428213f,0.21348271f,0.035340022f,-0.18988587f,-0.228669f,-0.3014318f,-0.27286053f,-0.28143933f,-0.23894313f,-0.07335663f,0.08983465f,-0.08862946f,-0.12232857f,0.0019587604f,-0.18972136f,-0.15507406f,-0.61300397f,-9.210821f,0.09517727f,0.15666567f,0.26701173f,0.41436097f,-1.1475772f,-1.8058887f,2.0718088f,-0.08159873f,-0.09773941f,-0.12070898f,0.20460066f,-0.06247035f,-0.7125697f,-0.22052081f,0.015589606f,-0.1804249f,-0.3083918f,-0.20634346f,-0.5930134f,-0.557442f,-0.009073374f,-0.06895776f,-0.82184815f,0.25858444f,0.80180705f,0.3086898f,-1.0104557f,-0.15524337f,-0.037061367f,1.0661211f,1.34594f,-1.3259703f,0.3000914f,-0.18507445f,-2.3852727f,0.19559237f,-0.15434004f,-2.2736769f,3.470958f,0.025986394f,0.06947836f,-1.0052289f,0.17885421f,-0.05046657f,-2.0462918f,1.988439f,-0.037927926f,-0.07347221f,0.014786946f,0.040703047f,0.11491587f,0.43772206f,0.34662995f,0.0032673585f,-0.87896705f,-0.42790067f,-0.094309025f,-0.3980748f,0.5795536f,-0.5002496f,-0.027005626f,3.9230354f,-0.08668183f,0.049007192f,-13.138155f,0.105794735f,0.044983804f,0.5859736f,-0.08719231f,0.7448876f,-0.083918124f,-1.1425556f,-0.026462048f,-0.014208364f,0.11297307f,0.013493819f,-0.32846165f,0.14678729f,-0.43090716f,-0.44879675f,-0.26954022f,-0.17569959f,0.040135752f,-0.35260272f,-0.2802164f,-0.038810857f,4.9820555e-06f,0.09295631f,-0.14685352f,-0.08542488f,2.3834f,0.041062057f,0.12921205f,-3.7451866f,0.060378805f,-0.46690544f,1.6629773f,-0.058584083f,-0.12960653f,-0.07109451f,1.6234814f,0.09937713f,-0.14669569f,-6.8136716f,0.05759345f,0.005065999f,-0.008369335f,0.1727967f,0.05333256f,1.1131053f,-0.6827727f,-0.020936843f,-0.048148636f,-0.16950408f,-0.5284474f,0.1557058f,0.31850427f,-0.62839013f,0.083968215f,-0.97991884f,0.05513584f,0.002350669f,0.955923f,1.1278338f,-2.392237f,-0.035175946f,-2.3171031f,0.0579698f,-0.109899096f,-0.50987417f,0.33871487f,0.40037784f,-1.0852555f,0.36579335f,1.2118323f,-1.6986333f,-1.8099163f,-0.19194146f,-0.39625064f,-0.30717307f,0.06437678f,-0.14785357f,0.16391338f,-0.19157024f,-0.48550498f,-0.0034091785f,-0.2771138f,-0.14238915f,-0.087082006f,-0.44129086f,-0.006668805f,-0.052793715f,1.6319475f,0.116812f,0.041618813f,2.3716018f,0.08702689f,0.07148638f,0.6470577f,0.029809332f,-1.149829f,-1.9295506f,-0.31968072f,-0.04938222f,-0.039018758f,-0.58889765f,0.18249516f,0.043444768f,-0.59169215f,-0.02711234f,-0.02456427f,-0.10283301f,-0.20568068f,-0.27139142f,-0.17784391f,-0.2997368f,-0.056995943f,-0.0091052465f,-5.0955014f,-0.1241171f,1.1443461f,2.7685976f,-0.9311615f,0.633071f,-3.2372816f,-0.29556826f,2.4220753f,-4.2017884f,-0.119500674f,2.4256351e-05f,-1.9853673f,-1.4617218f,0.26902035f,0.026345825f,2.2784116f,-0.4941714f,-0.62884367f,-0.74738324f,0.36974248f,0.11897324f,-0.039337225f,-0.11281202f,-0.4220979f,-0.1366752f,-0.93142164f,-0.3969225f,-0.029332787f,-3.380887f,0.006141571f,0.123278774f,3.1189148f,0.46182394f,-0.5440345f,-0.89061093f,0.44217867f,-0.018997125f,-0.051884357f,0.8877176f,2.0326965f,2.3219483f,-0.21327387f,0.18086489f,0.2427938f,-2.152586f,-1.50348f,0.44229195f,1.55299f,2.179254f,-0.010176294f,-0.990699f,-2.0700839f,0.59918797f,-0.6996469f,-3.2407842f,-0.22476846f,-0.357744f,-1.3601769f,0.3059024f,-1.1684918f,-0.18369643f,-0.06268289f,-0.7509786f,-0.86773896f,0.24118206f,-0.08205902f,-0.02696868f,-1.9804208f,-0.47609854f,-0.38754418f,-0.39619038f,-0.38069484f,-0.46314493f,0.14684653f,-0.713252f,0.0020348523f,-0.14857946f,0.25304538f,-0.264759f,0.0863623f,-3.2467294f,-0.03181813f,0.011779754f,-0.08821168f,-0.19250023f,-0.6625671f,-0.062274463f,-0.4771938f,-0.20446308f,-0.051179238f,0.05270954f,0.5776848f,0.11634397f,-3.0805085f,-0.35116252f,-0.25382322f,0.8639675f,0.17526051f,1.4512419f,-0.10135111f,-2.4969501f,-0.15346856f,-0.064378485f,12.430454f,-0.08146077f,0.021176409f,-32.762257f,0.19198826f,0.075826235f,6.1017356f,-2.2144728f,-3.3279762f,10.557092f,-2.9180677f,-0.011140832f,0.0075447075f,-0.67386854f,0.027491573f,-0.21880499f,-0.5983857f,0.06080415f,-0.31907797f,-0.23156406f,-0.070698455f,0.10318553f,-0.10041938f,-0.48689452f,-0.005494843f,-0.38864523f,-0.36926106f,0.005854719f,0.33416677f,2.2299738f,0.1767377f,-0.13239144f,-2.0033872f,-0.20877653f,-1.7017282f,-0.6700705f,0.54695094f,-0.013067304f,-0.0022457321f,-0.5654769f,-0.2665565f,0.020729877f,-0.3008739f,-0.3080641f,-0.23609206f,-0.16157156f,0.022227528f,0.18931495f,-0.22102529f,-0.07583785f,-0.3283669f,0.003196818f};
static const float automax_partition_epoch_10_weights_layer1[192] = {
-0.06263897f,0.4439612f,0.1871148f,-0.58420944f,0.07626887f,-0.4928459f,0.21549155f,0.03385613f,-0.1020238f,-0.87439334f,-0.09889746f,-0.057302177f,-1.0838367f,0.39446303f,0.30681583f,-2.6351094f,-0.08569668f,-0.07313522f,0.13923225f,0.009434467f,-2.67497f,0.10652977f,0.29715165f,0.004219593f,-0.8545308f,-0.108282275f,0.5658881f,0.004357671f,0.013722993f,-0.647221f,0.21094905f,-0.15063387f,-0.1433125f,0.007265151f,0.34397438f,0.109009415f,-0.2839039f,0.6262776f,0.003686524f,-0.13371259f,0.0853027f,0.011364896f,0.9589667f,-0.23075008f,0.009991855f,0.06327789f,0.5355814f,0.0772276f,-0.18515216f,-0.21839201f,0.13457273f,-0.16476212f,0.08250383f,-0.17817782f,-0.24948694f,-0.026095165f,-0.059702307f,0.034394253f,-0.06358835f,-0.085917786f,-0.094408296f,0.30305862f,-0.09029762f,-0.7199083f,-0.8891942f,-0.031133177f,0.2194105f,-0.018575216f,-0.07568126f,-0.035395898f,0.14271322f,-0.030943291f,0.0029881601f,0.044555385f,0.23418956f,-0.088632464f,-0.026100043f,-0.30836573f,0.11920855f,-0.15616639f,0.02920636f,0.041282244f,0.119479425f,-0.008024144f,-0.0027751334f,2.2589233f,0.10059427f,-0.084789366f,-0.38076663f,0.0025393455f,0.12700418f,0.16807193f,-0.0009153003f,0.1311703f,0.22439736f,0.10326474f,0.109594956f,0.022375708f,0.04764105f,0.015235603f,0.046109196f,0.17379615f,-0.2166613f,-0.020724634f,-0.030011898f,0.040406235f,-0.015181796f,-0.04569771f,-0.0003286811f,-0.0107075805f,0.0449634f,-0.18412578f,-0.35973874f,-0.089656435f,0.26144147f,0.09181353f,0.07531146f,0.06556635f,-0.0055240947f,0.0372247f,-0.18275453f,0.095289186f,-0.10954574f,-0.2133507f,0.02486989f,-0.008101825f,-0.057223693f,-0.018379383f,-0.16917971f,0.018482042f,-0.072018005f,0.15634176f,-0.0013760888f,1.2692342f,0.0829118f,-0.07167855f,-0.021472486f,-0.052019164f,-0.18848895f,0.16778862f,-0.016237123f,0.042251423f,-0.08407529f,0.10356655f,-0.1587232f,0.009576352f,0.10320462f,0.060231358f,0.06065331f,0.07133099f,-0.21922155f,0.025485346f,-0.03170195f,-0.03507975f,-0.010843006f,0.01925855f,0.0025184175f,-0.06181481f,-0.102369644f,0.27370283f,0.48349926f,0.09813428f,0.26116535f,-0.007409763f,0.27318212f,-0.27084345f,0.11648656f,-0.02943383f,0.18231566f,0.13694325f,-0.28993082f,-0.18044887f,0.029114997f,0.17665201f,-0.106697224f,0.27920505f,0.14252865f,0.024980495f,-0.16729078f,-0.11463502f,0.16594069f,0.25251f,-0.10381306f,-0.016892351f,0.04872853f,-0.05412137f,-0.48829708f,-0.19659016f,-0.02655187f,0.121221036f,-0.29209104f,-0.058873493f};
static const float automax_partition_epoch_10_bias_layer0[4] = {
-4.167485f,-0.010798417f,1.6087009f,0.36464313f};
static const float automax_partition_epoch_10_bias_layer1[4] = {
-4.167485f,-0.010798417f,1.6087009f,0.36464313f};
static const NN_CONFIG automax_partition_epoch_10 = {
    13,  // num_inputs
    4,  // num_outputs
    1,  // num_hidden_layers
    {
        48,
    },  // num_hidden_nodes
    {
        automax_partition_epoch_10_weights_layer0,
        automax_partition_epoch_10_weights_layer1,
    },  // weights
    {
        automax_partition_epoch_10_bias_layer0,
        automax_partition_epoch_10_bias_layer1,
    }  // bias
};

static const float automax_partition_epoch_20_weights_layer0[624] = {
-1.7593051f,0.39387634f,-0.09453667f,2.8150656f,-0.7129957f,-0.83945686f,-0.9099494f,0.58897567f,0.21813327f,-0.11326373f,-0.060380552f,-0.4081865f,-0.6592312f,0.120641954f,-0.055729985f,-0.23065017f,0.4335196f,-0.75875926f,0.05729502f,-0.71185505f,-0.08980219f,-0.15683883f,0.4160676f,0.81038576f,-2.9871593f,-0.022521688f,-2.1393435f,-0.2086224f,0.048235755f,-0.7708057f,-0.4957206f,-0.14580391f,-1.7201552f,-0.41629595f,0.3278098f,-2.5644598f,0.1615551f,-0.10310017f,-1.1748198f,-0.51513153f,-1.7696848f,0.062341478f,-0.17052035f,-0.08299723f,-0.28308597f,-0.9711977f,-1.237168f,0.19968063f,1.6689588f,1.1103264f,-0.053401772f,-0.08699308f,-0.19905742f,0.4257437f,0.32598963f,-0.67298716f,-0.26344168f,-0.12388026f,-2.510186f,0.3349797f,-1.8485284f,0.1532496f,-0.23319899f,-1.3396593f,-1.2130535f,1.2089742f,0.012608906f,0.22796148f,-11.422127f,-0.02455903f,0.14248346f,-0.22131108f,0.338734f,-4.009601f,0.96599245f,-1.6684467f,-0.21683857f,-0.07064081f,-0.26626158f,-0.032159515f,-0.1266477f,0.15550378f,-0.22246163f,0.034347095f,-0.25873822f,-0.090822436f,0.03950792f,-0.2817828f,0.15950266f,-0.24060652f,-0.2849404f,1.1302221f,0.14141141f,0.011672432f,2.7683043f,0.06943992f,0.05932817f,1.4101337f,0.049432922f,-1.3313841f,-2.0466838f,-0.8660602f,-0.06270583f,-0.04098326f,-0.39315957f,-0.072021715f,0.024378326f,0.19478343f,-0.36045587f,-0.27107823f,-0.21478373f,-0.29562986f,0.13626188f,0.10609236f,-0.118033215f,-0.03969929f,9.50787e-05f,-5.192675f,0.050070047f,0.6301568f,11.025393f,0.2386125f,0.09898837f,-1.5128369f,1.0432894f,1.069402f,-3.4663801f,-0.7527855f,-0.06691287f,-0.05069788f,-0.2499798f,0.66066736f,0.08163226f,-3.3975518f,-0.54908884f,-0.2802348f,1.1100156f,0.43270394f,1.5024552f,0.10166747f,-2.2744253f,-0.11003656f,-0.06780138f,-0.64472866f,-0.3962928f,0.23490964f,0.090197824f,-0.5236906f,-0.27507195f,-0.590442f,-1.0355496f,0.036636107f,-1.1934551f,0.87626845f,-0.05804192f,-0.5351756f,-0.17449407f,0.02195928f,0.17087287f,-0.3082036f,-0.11688152f,-0.1428198f,-0.056331504f,-0.022939231f,-0.06672593f,0.06488134f,-0.4895583f,-0.083898306f,-0.011330803f,-1.3668562f,0.0773671f,0.046052486f,1.3163787f,-0.1091544f,0.10315911f,-2.6891959f,0.35878602f,0.40469906f,-1.6044781f,-0.45493382f,-0.4970539f,-2.0603755f,-0.36602196f,-0.3965982f,-0.10291653f,-4.670305f,-0.032920823f,0.11092615f,3.6022666f,0.3939739f,-0.1567495f,-1.2412287f,-0.28652224f,-0.018314362f,-0.042618524f,-0.8480917f,0.20107418f,0.79041034f,0.50116825f,-0.92935795f,-0.8438565f,0.33582458f,0.8884948f,2.0391703f,-1.3935894f,-0.07404018f,-0.115658574f,-0.81761295f,-0.75054485f,-0.170352f,-3.2813325f,6.451966f,0.07238345f,0.10210905f,-1.7043535f,0.24669729f,-0.15202755f,-2.7438855f,4.5433493f,-0.06686511f,-0.104558565f,-8.40446f,0.21610601f,0.0013995735f,6.54873f,0.07391126f,0.07476484f,2.0445106f,0.87087953f,-1.1043527f,1.4348303f,-1.6878102f,-0.04078266f,-0.039434522f,-0.8579041f,0.4160608f,-1.1125942f,-0.34738654f,-0.021587448f,-0.024071474f,-2.5572314f,0.42836908f,-1.0702174f,-0.81346387f,0.42178097f,-0.8478538f,-1.1802386f,-0.3798912f,0.3071052f,0.6099817f,-1.0220957f,-0.26955065f,0.21453646f,-1.0174863f,-0.4013261f,0.6701182f,-0.9000921f,-0.02684722f,-0.042518344f,-1.4968072f,22.110542f,-0.1145682f,0.023481527f,-50.614403f,0.06747679f,-0.016652888f,8.712017f,-2.9492188f,-4.425147f,13.328484f,-6.796961f,-0.00022568012f,0.00073682296f,-3.6739554f,0.3377273f,1.6961607f,-2.0248322f,-2.0248091f,0.93367267f,-1.825298f,0.23875597f,3.2993138f,-2.8171127f,-0.37072948f,0.0020099578f,-5.01714f,-0.7726227f,-0.3532174f,-0.15143804f,0.5303382f,0.06690717f,-1.4358666f,-1.2780192f,-0.4638887f,1.4392643f,1.8021226f,1.2879324f,-0.027277822f,-1.8511223f,-1.66539f,0.26712316f,0.3937184f,0.64153826f,0.12553366f,0.18802586f,-3.0435145f,0.05090282f,-0.85930336f,-0.048465844f,0.9974328f,-1.1160603f,-0.650561f,-3.641381f,0.02505005f,0.08783697f,-0.7269074f,0.45112512f,0.4282874f,-0.8539815f,0.34341416f,1.5457065f,-1.9632739f,-2.8291447f,-0.18884292f,-0.4546332f,0.28732958f,-0.17144561f,-0.0796484f,3.3304915f,0.07741682f,0.16324161f,-5.408655f,0.09119537f,-0.7192304f,2.2678545f,0.60479575f,-0.16098759f,-0.07868401f,1.7226317f,2.8209014f,3.2859979f,-0.3474619f,0.2038662f,0.37456372f,-2.4728796f,-2.0414786f,-0.112431064f,1.3851784f,2.0929217f,-0.00886973f,-1.2459791f,-0.43478808f,0.45471787f,0.11742709f,-0.9441536f,-0.0072728232f,-0.24978219f,-3.7385612f,0.39598182f,-2.2930071f,-0.4898667f,-0.38312382f,-2.07852f,-1.9548855f,0.21032101f,0.4148526f,0.08384555f,-3.7315233f,-0.053799875f,-0.20797202f,0.90666157f,0.24156858f,0.029432753f,-0.09057497f,-2.4672487f,-0.046883274f,-0.058117043f,-1.1727087f,-1.0832098f,0.9083247f,1.859922f,-1.2199013f,-0.044588193f,-0.21644603f,0.094836965f,0.54386145f,-0.60383725f,0.7470165f,-0.09603017f,-0.2816718f,-1.9943432f,-1.6116827f,-1.3888854f,-1.486802f,0.09709466f,0.04162514f,0.037516415f,-1.5263875f,0.04256099f,2.7418485f,-3.7661939f,-0.021710122f,-0.029207878f,0.14151679f,0.00039935837f,0.23440908f,-1.6624687f,0.092320606f,-0.27555165f,0.015064415f,-0.3181656f,-0.36801443f,-0.15193659f,-0.2665703f,-0.08604701f,-0.013250369f,-2.2796786f,0.49681595f,-0.44641054f,2.2109041f,-0.009270429f,-0.31371635f,-1.2415504f,0.19972211f,0.57756305f,-2.1900969f,0.39103198f,-0.4013636f,-1.382477f,-1.3406432f,-0.15906228f,0.25468573f,3.4298387f,0.3239041f,-0.27908912f,-5.4387636f,-1.2574116f,-0.23493837f,-0.26776314f,-2.3298225f,-0.020270055f,-0.013383348f,-3.484193f,0.47156662f,1.3662907f,7.968964f,0.12715846f,-1.2195997f,-7.5333743f,-1.5511602f,0.028181281f,-1.8972688f,-0.6518705f,-0.09179436f,-0.02022728f,-1.5115774f,2.2240446f,0.64303714f,-1.0565246f,0.31353554f,-0.42571303f,-0.035782974f,-0.63556767f,-2.9247406f,-2.5124793f,-0.4947565f,-0.08030432f,-0.108996324f,-2.7179482f,0.44873694f,0.2040948f,1.4621612f,0.12176919f,0.18793234f,0.99823236f,-0.4869927f,0.08603479f,1.0508735f,0.17863184f,-0.33070812f,-2.5437052f,-0.25692952f,0.418344f,0.12981702f,-0.7360622f,-0.19609809f,-0.23887864f,-2.9389145f,0.39478406f,-1.4853536f,-0.073578805f,-0.28543982f,-1.4982473f,-1.5077112f,-1.2888086f,2.3076038f,-0.0101337135f,2.2007246f,-2.0410028f,-0.4148387f,-0.22288339f,-0.73079175f,-0.5731749f,0.06374922f,-0.27213928f,-0.077943005f,-3.112618f,-0.12475428f,-0.06885112f,0.008764963f,-0.14093547f,-0.2489389f,-0.2263229f,-0.20564783f,-0.19418366f,-0.19615577f,0.0018587442f,-0.20504601f,-9.197086e-05f,-0.19621822f,3.4774926f,-0.14647791f,-0.55917156f,-1.2959894f,0.01644816f,0.13045646f,-0.47052735f,0.269451f,-0.51072186f,-1.8440161f,0.4048804f,-0.053201094f,-0.09075663f,6.034927f,-0.13274238f,0.09316723f,-18.030174f,0.114603855f,0.083572686f,1.3162111f,-0.09353203f,0.93388134f,-1.0673622f,-2.6615748f,-0.03968142f,-0.014863792f,-2.2119498f,0.5375119f,1.0527462f,3.5628295f,-0.14466244f,-0.34106568f,-1.7298355f,-0.5892733f,-0.7795897f,-1.182581f,-1.8376209f,-0.0106173875f,-0.6629973f,3.0432723f,0.09394002f,-0.327376f,-11.973467f,-0.02246916f,-0.07009097f,0.5896038f,0.29632825f,0.13422376f,1.9437745f,-1.5657989f,-0.06052863f,-0.07083192f,0.9621921f,0.038223017f,0.79917985f,1.5598332f,-0.049916342f,-0.4155464f,-1.7962236f,-0.013916107f,-0.50821936f,-0.5166666f,0.110262915f,-0.034048095f,-0.657068f,0.17452554f,-0.15759663f,-0.14480579f,0.26596776f,0.14581901f,0.07992816f,0.4897203f,0.275897f,-1.696217f,-1.087669f,1.8450037f,-0.02839239f,-0.03179628f,-5.2739043f,0.13113217f,0.60273093f,11.243005f,0.26245746f,0.08058996f,-1.2503448f,0.897437f,1.2064211f,-3.6977253f,-0.78198946f,-0.07564739f,-0.04911078f,-0.31786576f,0.110374f,-0.9587312f,-8.866104f,0.16983478f,0.14616096f,-2.030202f,0.7205438f,-1.7183596f,-2.003493f,4.6774807f,-0.07326377f,-0.099968635f};
static const float automax_partition_epoch_20_weights_layer1[192] = {
0.4242878f,-0.15329543f,-0.18921797f,0.118924625f,0.42963448f,0.2842735f,0.06759604f,0.29894972f,0.05339008f,-0.57591456f,-0.20213456f,-0.042348772f,0.064318016f,0.25035292f,0.00065220764f,-0.72311074f,-0.08513844f,-0.41224492f,-0.06126296f,0.369086f,0.011694133f,-0.26434729f,-0.19353445f,1.0784662f,-0.1501293f,-0.5379689f,-0.117193155f,0.6075352f,-0.054486487f,-0.07299406f,-0.06823513f,-0.022419361f,0.016458068f,0.82152176f,1.1371442f,-0.6437408f,-0.27167135f,0.6167704f,-2.9303987f,0.11764551f,0.022069972f,0.022220979f,0.2250423f,0.11407223f,-2.133707f,-0.041243516f,-0.3435157f,0.26539648f,1.7849703f,-0.12412677f,-0.10681168f,0.18637994f,-0.1534291f,0.079352036f,0.2794306f,0.108856894f,0.04260093f,0.06620444f,0.14977176f,-0.10147437f,-0.0024472214f,-0.117724486f,0.09251096f,0.11363017f,0.02198277f,-0.122454464f,-0.7211392f,-0.012328562f,-0.0011295602f,-0.044588197f,-0.14740752f,0.0015580016f,0.007923747f,-0.26015246f,-0.08167005f,-0.16536227f,0.038324956f,-0.20884825f,-0.044772957f,0.042542852f,-0.6522687f,0.19515346f,0.24578579f,0.030844433f,-0.052092724f,-0.2561566f,-0.059102617f,-0.041344695f,0.0715075f,-0.043567326f,0.04465096f,0.04629703f,-0.52927774f,-0.022601804f,-0.16284043f,0.14283895f,0.9761305f,0.063765936f,0.027886061f,0.22216262f,-0.020375604f,-0.10449665f,0.31108776f,-0.03178333f,-0.0078961f,0.02428437f,0.1154502f,-0.043959823f,-0.007137565f,-0.2806534f,0.091707274f,-0.19980481f,0.06436997f,-0.0011819195f,-0.031928513f,0.0651339f,-0.01446637f,-0.016159358f,-0.06423086f,-0.720462f,-0.11998504f,-0.03610427f,-0.07144451f,-0.0016091188f,-0.048385058f,0.09720408f,-0.013480726f,-0.01409107f,-0.35142976f,0.051401798f,-0.059147548f,0.0463046f,0.10440015f,-0.23805797f,0.06645546f,-0.023175187f,0.008111302f,-0.1456666f,-0.00088746904f,-0.042153273f,-0.10274727f,-0.06870157f,-0.040712677f,0.024809415f,0.0967249f,0.23840417f,0.040844858f,0.21164164f,-0.31328315f,-0.12074137f,-0.2895678f,-0.1337011f,0.0134046115f,-0.08332658f,-0.12968957f,-0.075856745f,-0.008807753f,0.10621128f,-0.050439753f,0.092178054f,0.08415784f,0.04461874f,-0.01817683f,-0.33032483f,-0.022855174f,0.15534346f,0.07299881f,-0.31409514f,0.12502882f,0.09350199f,-0.0009114683f,-0.46378678f,0.055750992f,0.31306875f,0.0010599882f,0.0029732443f,0.3711127f,-0.001037764f,-0.0851519f,-0.022884281f,-0.022395782f,-0.24308325f,0.24107733f,0.07283506f,0.14575008f,-0.13084032f,-0.036506552f,-0.10684663f,0.24221894f,-0.1591645f,0.07435934f,0.100971386f};
static const float automax_partition_epoch_20_bias_layer0[4] = {
-4.262695f,0.11903409f,1.9285408f,0.6789191f};
static const float automax_partition_epoch_20_bias_layer1[4] = {
-4.262695f,0.11903409f,1.9285408f,0.6789191f};
static const NN_CONFIG automax_partition_epoch_20 = {
    13,  // num_inputs
    4,  // num_outputs
    1,  // num_hidden_layers
    {
        48,
    },  // num_hidden_nodes
    {
        automax_partition_epoch_20_weights_layer0,
        automax_partition_epoch_20_weights_layer1,
    },  // weights
    {
        automax_partition_epoch_20_bias_layer0,
        automax_partition_epoch_20_bias_layer1,
    }  // bias
};

static const float automax_partition_epoch_30_weights_layer0[624] = {
-2.900069f,0.21962583f,0.0832722f,1.186678f,-0.025915407f,0.068319306f,1.1399928f,-1.1764884f,0.4596202f,1.1111507f,0.1731017f,-0.16275227f,-2.5969467f,0.087058745f,-0.021847943f,0.039975222f,-0.05441955f,-0.33962378f,-0.2700492f,0.049460497f,-0.111778565f,-0.10758578f,-0.23716705f,-0.27080792f,-0.3202898f,-0.23390406f,-0.59724027f,-0.10629152f,-0.019229496f,-0.26645055f,-0.26358318f,0.10400224f,-0.73718977f,0.08094432f,-0.14469111f,-0.26241076f,-0.19410735f,-0.02068157f,-0.20540261f,-0.4974856f,0.826362f,0.13683449f,-4.2686286f,-0.5937736f,-0.37329003f,1.8903397f,0.5838064f,1.8273729f,-0.44173414f,-4.728576f,-0.25232592f,-0.08290124f,-0.11055409f,-0.2317654f,0.16482316f,-0.22780527f,-0.17203201f,-0.14808826f,-0.24232674f,-0.15736507f,0.0016604962f,-0.06691635f,-0.41840133f,-0.079504475f,-8.483527e-05f,2.7854624f,3.0045974f,3.5060523f,-0.81712973f,0.19613604f,0.24095902f,-2.9076948f,-2.2445328f,-0.16089882f,1.5197461f,2.3765738f,-0.031575147f,-1.3464024f,-0.73551303f,-0.13609904f,-0.17175624f,0.1224548f,0.14449719f,0.10271153f,1.2308205f,0.2938f,-1.7783275f,-0.659775f,1.9173801f,-0.029165182f,-0.03363358f,-1.5071632f,2.4478571f,0.7145155f,-1.1640044f,0.29530454f,-0.43613568f,0.27492142f,-0.68930453f,-3.13434f,-3.1388464f,-1.0231891f,-0.083091006f,-0.12701824f,-0.23995557f,-0.04744532f,-0.10001148f,-0.96712416f,-0.16611697f,-0.20103392f,-0.42315805f,0.062350973f,-0.17470734f,-0.13061677f,-0.43033516f,-0.0007115765f,-0.04910209f,1.4102889f,0.08139168f,0.11177282f,3.70616f,0.11860529f,0.070101425f,1.8859892f,0.16150084f,-1.692836f,-2.5195045f,-0.9411241f,-0.08578868f,-0.056617305f,1.410538f,0.15524828f,-1.2440643f,-13.731196f,0.071523316f,0.35503557f,-2.3469946f,1.1921405f,-2.8136282f,-2.682658f,6.1328087f,-0.08122641f,-0.12130003f,0.5478888f,-0.17407565f,0.44942045f,0.46220708f,-0.5139239f,-0.36999097f,0.36726657f,-2.8791795f,-1.3626403f,-0.745013f,0.08853969f,-0.025277121f,-0.074155554f,-0.0525492f,-0.12925027f,-0.15868318f,-0.6427397f,-0.35831356f,-0.16590305f,-0.40483034f,0.005419347f,-0.20738164f,-0.2913628f,-0.2564322f,-0.01858065f,-0.23331968f,-2.5407424f,-0.38559636f,0.5713099f,4.177911f,0.39440337f,-0.51959515f,-8.054963f,-1.0981419f,-0.4996548f,-0.20589796f,0.5124769f,-0.055766344f,-0.019820757f,0.5501049f,-0.20520104f,-0.04094717f,3.962586f,0.09548153f,0.13853492f,-6.979523f,0.06030291f,-0.78772634f,3.0879724f,0.99604714f,-0.17167754f,-0.076288566f,-0.5199018f,-0.17602599f,0.16546959f,-0.8301464f,0.013655841f,-0.16601507f,-0.21319026f,-0.4184789f,0.011642516f,-0.40585044f,-0.1862748f,-0.12347044f,-0.016154185f,-0.34392577f,-0.011385831f,-0.15536104f,-0.7343039f,-0.27131033f,-0.42974496f,-0.088857055f,-0.004018314f,-0.057051077f,-0.05503933f,-0.4420014f,0.0005016591f,-0.35571647f,-0.4936019f,-0.02269104f,-0.067892484f,-0.35455513f,-0.2909711f,-0.40663794f,-0.24163625f,-0.040917374f,-0.016767683f,-0.006554063f,-0.30247155f,0.00068720157f,-0.3438155f,25.661901f,-0.12905666f,0.009214668f,-62.29649f,0.06406626f,-0.03620756f,11.1694145f,-4.0177016f,-5.209888f,16.41981f,-8.365982f,-0.00019604796f,0.000634471f,2.5773199f,0.1197043f,-0.24729775f,-14.162822f,-0.017951757f,-0.074398465f,0.8669277f,0.27088824f,0.017636854f,2.1690466f,-2.4455054f,-0.06958572f,-0.07331762f,1.0420748f,0.06665309f,0.8254205f,1.5679892f,-0.05954753f,-0.4851713f,-1.8181607f,0.01665811f,-0.52659476f,-0.5708215f,0.06380956f,-0.036177613f,-0.6305163f,-0.44794756f,0.61974f,0.30053863f,-0.18527494f,-0.21373913f,-0.01030676f,-4.4501524f,0.4960922f,-3.3678262f,0.36468077f,-0.13845985f,-2.9109213f,-2.6294448f,-1.5629247f,2.805901f,-0.03251806f,2.5956974f,-2.4179842f,-0.49667016f,-0.29259804f,-0.91704476f,-0.7938532f,0.13948908f,-0.16439411f,-0.2259844f,-3.8738651f,-2.4045742f,0.4964845f,-0.12638628f,3.4917042f,-0.96445173f,-0.9178363f,-1.0114787f,0.8177841f,0.2896127f,-0.06579337f,-0.19595678f,-0.68364584f,-1.2372125f,-0.8806583f,-1.9879942f,-0.105387315f,-0.00920986f,-0.0898388f,-0.27968827f,-1.4614054f,-1.4017197f,0.028882144f,2.383529f,1.6448714f,-0.066038884f,-0.11551863f,-0.162239f,-0.22888888f,-0.010562832f,-0.9553358f,-0.050258063f,-0.04484717f,-0.1212024f,-0.22659665f,0.04478082f,-0.13561457f,-0.5041232f,-0.08844997f,-0.0153229525f,-7.4052153f,0.11525664f,8.116943e-05f,10.058611f,-0.13557343f,-0.15275635f,-3.5396597f,0.4484295f,1.0787282f,-4.7079134f,-1.3953193f,-0.29592f,-0.084292576f,-0.3055679f,-0.012863056f,-0.10303534f,-0.34427977f,-0.24311066f,-0.25329503f,-0.23854616f,-0.024170633f,-0.14392272f,0.052575458f,-0.38834542f,-0.005673697f,-0.28904757f,-5.3583326f,0.490593f,2.0100741f,-3.2262475f,-2.2006094f,1.3779131f,-5.4154124f,-3.801797f,2.9784758f,-6.9504232f,-1.9125037f,0.009092739f,-6.168639f,-1.0792395f,2.145465f,-0.8453112f,1.8322576f,-0.046758167f,-0.25865215f,-5.561069f,-0.8104258f,0.30745006f,-1.8214116f,1.620311f,-1.5274057f,-2.5954344f,-0.079282545f,-0.24951826f,-0.42184612f,-5.2778053f,-0.006794865f,0.061208006f,4.2701035f,0.057514384f,-0.050924335f,-1.3006355f,0.094019204f,-0.03929015f,-0.02601159f,-1.2778642f,0.25419003f,0.9963806f,0.6947042f,-1.1366793f,-0.82155937f,0.22735257f,1.0567203f,2.407677f,-1.7110037f,0.10088619f,-0.12209229f,-1.0931219f,-9.295258f,0.2250279f,-0.018221311f,7.1926146f,0.088795125f,0.07249343f,2.1768997f,0.9377394f,-1.3053248f,1.6873748f,-1.7331055f,-0.045061175f,-0.0420661f,0.7071498f,0.13807605f,-0.10357268f,0.5266199f,-0.87707084f,0.09016848f,-0.49042505f,0.02371831f,-0.10532543f,-0.060165703f,0.6068161f,-3.266252f,-0.032074578f,0.5956606f,0.045041054f,0.6592359f,2.0451527f,-0.09481499f,-0.21603966f,-0.76293176f,0.069447845f,-0.57631797f,-0.71577126f,-1.3018068f,-0.019725498f,-0.67642653f,-2.281174f,-1.6551112f,-1.2603685f,-1.6136913f,0.102556534f,0.04506612f,0.06037908f,-1.3785384f,-0.017276833f,2.8367093f,-4.5103245f,-0.028747741f,-0.022644721f,-3.431509f,0.07986622f,0.5131243f,5.679946f,0.11218087f,0.102782615f,-5.392391f,-0.63081926f,0.4347295f,-0.42731515f,-0.643238f,-0.10020754f,-0.28390422f,-0.36390224f,0.080716014f,0.1237517f,-0.3207492f,-0.080500014f,-0.11370801f,-0.37489378f,-0.08158535f,-0.22546433f,-4.975829e-05f,-0.27962482f,-0.16200171f,-0.0023524242f,-1.5460645f,-0.7040173f,1.1312999f,1.374102f,-1.0044082f,-0.23339193f,0.0155765945f,0.36641392f,0.060754906f,0.26006123f,0.58827853f,-0.06859414f,-0.19014435f,0.30037406f,-0.22838204f,-3.332476f,6.115072f,0.06550382f,0.08319901f,-1.6768398f,0.20426553f,-0.21915379f,-3.0529842f,4.270625f,-0.073126435f,-0.108254224f,-0.004444858f,-0.105092876f,-0.11314543f,-0.75442463f,-0.15827046f,0.0057221544f,-0.41321334f,0.048677072f,-0.4348024f,-0.122559875f,0.29453838f,-0.005858756f,-0.00212159f,-0.4815548f,-0.06143491f,-0.011971383f,0.19742893f,-0.42173946f,-0.1300584f,-0.2676539f,0.024834607f,-0.100022174f,-0.38454f,-0.06867179f,0.0009550025f,-0.25143117f,-6.637857f,0.08647915f,0.8382186f,14.166503f,0.3013972f,0.12169736f,-1.8839937f,1.2618028f,1.4103054f,-4.488907f,-1.0104245f,-0.08712549f,-0.06488217f,-0.66573024f,-0.17929292f,-0.0753013f,-0.033384692f,-0.44000715f,-0.21790694f,-0.39108706f,0.07388003f,0.28476146f,-0.454779f,-0.22503683f,-0.34409118f,0.0026937067f,0.005733081f,0.45091397f,0.3105879f,0.4803924f,0.14343831f,-0.011955169f,-5.3401637f,0.1475769f,-2.4449418f,-0.027446548f,0.755472f,-2.4550087f,-1.3304094f,-4.3475623f,-0.0095379725f,-0.049276337f,-0.58446485f,0.47209048f,0.46555302f,0.5538936f,0.41650346f,1.5149627f,-2.587075f,-4.9382563f,-0.24960524f,-0.47368455f,1.0100751f,-1.8905891f,0.3561614f,-1.9747006f,-0.08163237f,-0.25392914f,-0.7090822f,-0.7477422f,0.19511749f,0.4695921f,0.52633494f,-0.03388459f,-0.07284522f,6.6780224f,-0.16971777f,0.081771895f,-21.66376f,0.15242311f,0.10394954f,1.6552399f,-0.09350413f,1.1821345f,-0.87451375f,-2.9785519f,-0.04961427f,-0.014761813f};
static const float automax_partition_epoch_30_weights_layer1[192] = {
-0.34564155f,0.14655143f,0.032055542f,-0.19718638f,0.056180563f,-0.09394658f,-0.03271927f,-0.6093357f,0.017297765f,0.2076462f,0.19056222f,0.2844783f,-0.017811015f,1.8465773f,-0.44155687f,0.058989123f,0.0060321637f,-0.0060989233f,0.009301395f,0.10740804f,-2.114019f,1.049699f,-2.473063f,0.34259364f,0.027614037f,0.030245323f,0.093878895f,0.00194547f,-0.22720788f,-0.06181152f,0.0056406967f,-0.78783685f,-0.38685527f,-0.15432228f,-0.030641448f,-0.073731646f,1.2723155f,0.009024985f,0.02776904f,-0.09509625f,0.15084292f,-0.008740832f,-0.7590621f,0.06833708f,1.1020204f,-0.117027625f,0.08567304f,0.019812575f,-0.16474333f,0.21989426f,0.03859035f,0.10137619f,-0.042594496f,-0.07669455f,-0.031598527f,0.030064525f,-0.11173508f,0.06974123f,0.097298354f,0.18431279f,0.10490202f,0.5902297f,-0.20627275f,-0.07797568f,-0.089428484f,0.040664654f,-0.0009363084f,0.06151415f,-0.5700293f,-0.64253795f,-0.11338799f,1.4180793f,0.038978886f,-0.06942961f,0.10109734f,0.09806431f,-0.023219153f,-0.51471305f,0.08697912f,0.05879852f,-0.10598464f,-0.1562482f,0.05255293f,-0.050258685f,-0.09606119f,-0.066735744f,-0.2045252f,0.030053008f,-0.12400047f,0.022089683f,-0.0922002f,-0.07739347f,-0.39951932f,0.035916127f,0.16535f,-0.04673329f,0.06260147f,0.042697214f,0.06375705f,0.07396499f,-0.027797591f,-0.0643867f,-0.061645243f,0.030240005f,-0.00029249105f,-0.04090881f,0.0014168167f,0.037415113f,-0.029940983f,-0.048809443f,-0.019973347f,0.01064949f,0.068735495f,-0.11002204f,-0.01173869f,-0.049103945f,-0.1527023f,-0.23501883f,0.033063766f,0.7690643f,0.12172286f,-0.026403919f,-0.0656113f,0.074901804f,-0.0161934f,-0.23584549f,0.09091131f,-0.10465296f,0.0041669286f,0.023919577f,0.09989944f,-0.015860612f,0.09127725f,0.07358072f,0.09275165f,0.05964539f,-0.051051255f,0.041705478f,-0.010219328f,0.015605341f,-0.39875862f,-0.11108066f,0.10958944f,-0.12998025f,-0.021373203f,0.25405028f,-0.031825133f,-0.083032f,-0.011674439f,-0.024349306f,-0.1544329f,-0.029465433f,-0.0042973687f,-0.08049936f,0.0921893f,-0.013821385f,-0.09067942f,0.2645396f,0.07682697f,-0.05036261f,-0.01830385f,0.032782193f,-0.01849919f,-0.095328346f,0.3676794f,-0.45581904f,0.23362969f,0.0905541f,0.24276502f,-0.059347577f,0.07173008f,-0.045859214f,0.10093994f,0.20264721f,-0.0018915007f,0.12385927f,0.0369891f,0.20174378f,-0.20366344f,0.0033244137f,-0.552303f,-0.004117099f,0.46027076f,0.09630834f,-0.11011785f,0.11367571f,0.007535201f,0.049117625f,-0.5090597f,0.12990284f,-0.047638897f,-0.107451044f};
static const float automax_partition_epoch_30_bias_layer0[4] = {
-4.245786f,0.13122006f,1.9405603f,0.7285966f};
static const float automax_partition_epoch_30_bias_layer1[4] = {
-4.245786f,0.13122006f,1.9405603f,0.7285966f};
static const NN_CONFIG automax_partition_epoch_30 = {
    13,  // num_inputs
    4,  // num_outputs
    1,  // num_hidden_layers
    {
        48,
    },  // num_hidden_nodes
    {
        automax_partition_epoch_30_weights_layer0,
        automax_partition_epoch_30_weights_layer1,
    },  // weights
    {
        automax_partition_epoch_30_bias_layer0,
        automax_partition_epoch_30_bias_layer1,
    }  // bias
};

static const float automax_partition_epoch_40_weights_layer0[624] = {
1.2036291f,0.07604578f,0.06834791f,3.646844f,0.11734092f,0.06837424f,1.8653421f,0.1235306f,-1.5232068f,-2.357391f,-1.0152984f,-0.08369722f,-0.04194419f,-0.62992686f,0.072574854f,-0.13957317f,0.47714898f,-0.13595234f,-0.21992272f,-0.41267413f,-0.09694259f,0.13717113f,-0.6572407f,-0.061629344f,-0.053310867f,-0.1510567f,0.71299475f,-0.21870291f,-0.043965053f,4.454854f,0.09348827f,0.17577012f,-7.8584356f,0.07127384f,-0.8745004f,3.349626f,1.247623f,-0.17489554f,-0.09886754f,-2.2379231f,-1.6592968f,-1.2560422f,-1.3229976f,0.09216951f,0.03955045f,-0.08090991f,-1.419546f,0.044029627f,2.97083f,-4.2596664f,-0.022549197f,-0.0281019f,-1.6225044f,0.30786774f,1.2626396f,1.1547962f,-1.4725806f,-1.0565898f,0.5863515f,1.485702f,2.8011856f,-2.261196f,0.49131787f,-0.17842966f,-1.3742268f,-0.019215792f,0.6531089f,0.14965406f,0.0027302746f,-0.41713604f,-0.37018096f,-4.845003f,0.56807184f,-2.6799622f,0.65674f,0.2229582f,-2.7598312f,-1.931649f,0.046535265f,-0.07209479f,-0.046182893f,-0.77906275f,-0.49038363f,-0.33941817f,-0.27268523f,-0.100257955f,-0.110821165f,0.071566686f,-0.4358122f,-0.027424011f,-0.18199863f,-0.14448158f,0.102062166f,-0.21669045f,-0.026261711f,-0.41127494f,-0.40584233f,-0.21746439f,-0.08969934f,-0.17573583f,-0.12009512f,-0.30595878f,0.0013084966f,-0.2566626f,-0.2822869f,0.07487507f,-0.0172835f,-0.3089007f,-0.3737417f,-0.2190366f,0.053281117f,-0.10114329f,-0.20098527f,0.23192258f,0.040986642f,-0.020693267f,0.00027247f,0.019206386f,0.07898473f,0.1296418f,-0.2536313f,0.048781984f,-0.26210508f,0.08577859f,-0.36548743f,-0.13896422f,-0.19025545f,-0.30456203f,-0.18068372f,0.0017159318f,-1.2260709f,0.45279303f,1.4254568f,-0.19356014f,-1.2795203f,0.016244348f,-1.5642349f,-1.5758647f,-0.8265809f,-1.3412627f,1.5702091f,-0.77545494f,-0.7830936f,-4.1730795f,-0.01972439f,-0.012021426f,-0.9849375f,0.4728081f,0.44857514f,0.3438347f,0.43801478f,1.5480335f,-2.2250674f,-4.526625f,-0.18657778f,-0.46841103f,0.12518065f,-0.060213026f,-0.1186714f,-0.085751675f,-0.11718303f,-0.1294029f,0.008712638f,-0.084913984f,-0.10439851f,-0.17599295f,-0.13405783f,-0.002936506f,-0.037832964f,-0.9313454f,-0.1318634f,-0.21303043f,0.33490416f,0.1541901f,0.120326936f,1.3594209f,0.29463595f,-1.933682f,-0.7858459f,2.1062012f,-0.02970099f,-0.041810907f,-0.06922252f,0.13862212f,-0.054913033f,0.0125407735f,0.0033614065f,-0.08539666f,-0.18680286f,-0.16429946f,0.022802882f,-0.3548694f,-0.053694554f,-0.068439126f,-0.010982079f,-1.48741f,2.7592845f,0.71287155f,-1.3577682f,0.33113304f,-0.50146013f,0.12971662f,-0.75691456f,-3.585254f,-3.416555f,-0.87795043f,-0.09716622f,-0.12612365f,28.461426f,-0.14826679f,0.016078157f,-67.78585f,0.08458307f,-0.039656654f,11.514371f,-4.2747316f,-5.721029f,17.478416f,-8.53072f,-0.0009150065f,0.003921039f,-0.010771555f,0.58520347f,0.30099887f,-0.054495692f,-0.36409104f,-0.1865261f,-5.2247696f,0.65180326f,-3.3378046f,0.6353652f,-0.1348092f,-3.0306168f,-2.217518f,2.2462158f,0.63601744f,-1.6998256f,-0.47240266f,-0.26918504f,-0.9018992f,-3.3903742f,-2.5451534f,-2.9796078f,0.28219774f,1.7515739f,-13.58721f,-10.591633f,0.09755596f,0.22637677f,0.09300433f,-0.06718969f,-0.05752958f,-0.16443734f,-0.08618995f,-0.3450848f,-0.2208103f,0.010068027f,-0.35282505f,-0.17526145f,-0.060228564f,0.7865832f,0.19347249f,-0.11938583f,0.5785964f,-0.86839134f,0.056687046f,-0.51975745f,0.057280846f,-0.2309376f,-0.06858001f,0.68747f,-3.9023163f,-0.024936564f,0.21523258f,-0.07001732f,0.103968024f,-0.42907888f,0.088359796f,-0.4178928f,-0.17391999f,-0.13834429f,0.015929362f,-0.041167606f,0.049849905f,-0.26466095f,-0.01247591f,-1.7923728f,-0.65667677f,1.3543532f,1.4911731f,-0.9801563f,-0.36999047f,-0.17652994f,0.3578151f,0.012750082f,0.3518819f,1.0944836f,-0.08867793f,-0.17343782f,3.2105079f,3.4462366f,4.0482764f,-0.80064917f,0.22501302f,0.2940595f,-3.3784807f,-2.4740098f,-0.47220996f,1.6679791f,2.6392872f,-0.055587072f,-1.5719055f,-0.039848942f,0.53151435f,0.28983426f,0.42277703f,-0.41535884f,-0.109033264f,-4.8717318f,0.6783147f,-3.104959f,0.6546401f,-0.39622697f,-2.819578f,-1.8818319f,-3.977274f,0.32778484f,0.4615004f,5.7397084f,0.12978786f,-0.022626529f,-5.74055f,-0.8120382f,0.5379319f,-0.06295916f,1.2933536f,-0.1884818f,-0.10284176f,-2.8464043f,0.63409436f,-0.3940755f,2.1388547f,-0.0429296f,-0.54241526f,-1.2859714f,0.15280233f,0.9539351f,-2.1670678f,-0.038994774f,-0.46227488f,-1.4921445f,1.9626667f,0.16947088f,-1.2060094f,-14.439989f,0.06649444f,0.3725121f,-3.0381322f,1.2383081f,-2.6296375f,-2.5579746f,6.631393f,-0.078827634f,-0.11885057f,1.3379097f,0.08726423f,1.0369062f,1.991878f,-0.06913307f,-0.5791694f,-2.3040469f,0.011061834f,-0.6265867f,-0.7317652f,0.014579253f,-0.043233264f,-0.80374163f,-2.4029212f,4.23852f,-0.047161352f,3.9500306f,-3.6811693f,-0.788834f,-0.4698095f,-1.3753924f,-1.1711887f,0.23038001f,-0.2882693f,-0.2520349f,-5.8191085f,-0.2946159f,-0.18382865f,0.035783205f,0.101630576f,-0.06635847f,-0.16038464f,-0.4104577f,-0.2749732f,-0.06239618f,0.0046930397f,-0.33473432f,-0.0011504503f,-0.15010758f,1.1604903f,-1.91065f,0.35755897f,-2.0715609f,-0.07358554f,-0.24162158f,-0.7482754f,-0.73188424f,0.18549027f,0.33191913f,0.35628885f,-0.03525455f,-0.075738266f,-2.4563875f,0.48778257f,-0.11835291f,3.6153274f,-1.002926f,-1.0000557f,-1.0349908f,0.8432294f,0.38773903f,-0.11611799f,-0.22172081f,-0.60518384f,-0.9585875f,0.20780922f,-0.16579604f,0.07175744f,-0.16244529f,-0.2713943f,-0.38265085f,-0.18209375f,-0.2795645f,-0.14674735f,-0.299102f,-0.4547948f,-0.019139089f,-0.0008636144f,-3.43792f,0.2179652f,0.06767758f,1.4865863f,-0.055816736f,0.01060988f,1.3917212f,-1.4793327f,0.5666173f,1.3504728f,0.14159396f,-0.1473728f,-2.8832672f,-0.16018775f,0.5555107f,0.3145261f,0.084238164f,-0.4513905f,0.0110693425f,-5.2492275f,0.810837f,-3.7239938f,0.75457746f,0.011814636f,-3.3568096f,-2.515688f,-5.8957624f,0.100465186f,2.5526223f,-1.0152684f,-3.2034392f,1.4844364f,-5.050575f,0.1122248f,3.3982623f,-6.9424653f,-1.4977348f,-0.0022460748f,-7.2972693f,-0.884803f,-2.0388112f,-0.072420865f,0.027787892f,-0.09386103f,-0.30112755f,-1.5663141f,-1.4612626f,0.1352138f,2.3527186f,1.7740711f,-0.064039834f,-0.12029472f,2.7847035f,0.15114959f,-0.18362486f,-15.347186f,0.015526048f,-0.07840051f,0.83195364f,0.3227542f,0.06985588f,2.1234317f,-2.6733425f,-0.0755115f,-0.06987707f,-0.034341507f,0.7063765f,0.11921613f,0.22069073f,-0.43763453f,-0.007396381f,-5.141551f,0.56300455f,-3.1382563f,0.87988186f,0.22759515f,-3.00431f,-2.3130116f,-1.4567542f,0.58453315f,-0.6980118f,0.982682f,-0.20085444f,-0.81258696f,-1.4846448f,0.37702364f,0.093317874f,-1.5394796f,0.7454747f,-0.09780573f,-0.3836349f,-0.6185203f,0.89827436f,0.22204173f,-4.574303f,-0.68861103f,-0.34966928f,1.767261f,0.7248454f,2.0930212f,-0.6138886f,-4.6213174f,-0.21972425f,-0.06098599f,0.35556498f,-0.19629805f,-3.4506013f,6.2182393f,0.06312163f,0.10213274f,-1.7027432f,0.19497034f,-0.26809713f,-3.0933208f,4.5399785f,-0.07126282f,-0.109305255f,0.53588265f,-0.22579251f,0.5028884f,0.51688045f,-0.52878124f,-0.2949584f,0.35351285f,-2.7984524f,-1.2918105f,-0.73830426f,0.10089282f,-0.016766837f,-0.23444219f,-0.18278866f,-0.27186483f,-0.4276428f,-5.3605123f,0.0025360738f,0.0723819f,4.3016105f,0.06470492f,-0.03833404f,-1.3113832f,-0.08927616f,-0.043235473f,-0.024385076f,-7.4464617f,0.10909209f,0.9025707f,15.626307f,0.33365962f,0.13533834f,-1.9861333f,1.4203607f,1.5701444f,-4.9172277f,-1.0234121f,-0.09460758f,-0.07210324f,-10.580067f,0.26591504f,-0.055807542f,8.014466f,0.09316932f,0.08219716f,2.5273204f,1.070889f,-1.4298207f,1.9676511f,-1.9612683f,-0.048961386f,-0.049271304f,7.1483274f,-0.2011584f,0.094327696f,-23.031754f,0.17897563f,0.08747497f,1.7416662f,-0.10747224f,1.277819f,-0.95769614f,-2.9475732f,-0.061224315f,-0.017413737f};
static const float automax_partition_epoch_40_weights_layer1[192] = {
0.22136764f,-0.0784918f,-0.37010399f,-0.07039917f,-0.581256f,0.7525618f,-0.070006594f,-0.028968733f,0.012848472f,0.061419148f,-0.47417927f,-0.09057387f,0.06386864f,-0.03967385f,0.03233466f,-0.5192052f,0.0076484983f,0.81536525f,0.27408546f,0.16825126f,-0.14695196f,0.048518572f,0.06951101f,-0.08353979f,0.82186466f,1.6214738f,-0.030726155f,0.18291774f,-1.7567875f,-1.6433682f,0.10261285f,0.08120761f,0.30348727f,-0.016697409f,-0.27211303f,0.82243085f,-0.19953424f,0.036377348f,0.109943666f,0.7925099f,-0.2630267f,-0.18906786f,-0.0902263f,0.28525332f,0.025986895f,-0.68084145f,-0.34377506f,-0.0056073633f,0.08096338f,-0.06593087f,-0.16478479f,-0.04508884f,0.035473958f,-0.13457246f,-0.12901993f,0.002715001f,-0.039803706f,-0.23643069f,-0.22116475f,0.039590728f,-0.03772435f,-0.027852591f,0.02357071f,0.023129513f,-0.0011116354f,-0.0805261f,-0.14702111f,0.06993714f,-0.1451091f,0.011054782f,-0.153942f,-0.061526477f,0.10539872f,0.10121338f,-0.6440629f,0.09732962f,-0.4478429f,-0.07689334f,-0.011228919f,0.15517849f,1.3804821f,-0.020314654f,-0.12623927f,0.082434565f,-0.008409718f,0.056604136f,0.0618638f,-0.18054081f,-1.0091289f,0.10011358f,0.028362729f,0.2043474f,0.09160127f,-0.08001077f,-0.0970547f,-0.050430283f,-0.03137914f,0.13848484f,-0.005863256f,-0.013241785f,-0.08839657f,-0.16494451f,-0.047615264f,-0.043267824f,-0.01582072f,-0.12616272f,-0.1402806f,-0.12836057f,-0.03857209f,-0.05796924f,0.015287315f,0.02203419f,-0.010687228f,-0.15318964f,-0.26615334f,0.39051706f,0.014044702f,-0.06491953f,0.12707287f,-0.0506354f,0.040766217f,0.030687546f,-0.3349822f,0.018892104f,-0.06191602f,0.019239902f,0.12551297f,0.10061536f,0.70352453f,-0.063536875f,0.06472202f,-0.0054019964f,-0.0020845474f,0.1186141f,-0.048231855f,-0.087167785f,-0.06453802f,0.08414184f,0.06624038f,0.025452085f,0.0916608f,-0.009667441f,0.0064082965f,-0.11780409f,-0.091942094f,0.056182712f,0.063789636f,-0.0012131269f,0.07421164f,-0.20084544f,-0.08753384f,-0.079746254f,-0.051206883f,0.12027092f,-0.006812215f,0.112575516f,0.01688207f,-0.1347912f,0.030420355f,-0.030453663f,-0.016602335f,-0.009276453f,0.44292188f,0.14669903f,0.1951906f,-0.041832667f,0.40697405f,-0.023845704f,-0.1095636f,-0.4316213f,0.37120396f,0.09514879f,0.139085f,0.1445351f,-0.05214207f,-0.045674637f,0.10843111f,-0.011634509f,-0.027158057f,-0.159495f,0.085894614f,0.2475819f,-0.08719003f,-0.15344496f,0.107256256f,-0.066962995f,0.0877294f,0.008660077f,-0.009474979f,0.007137929f,0.03894772f,-0.102487154f};
static const float automax_partition_epoch_40_bias_layer0[4] = {
-4.2468414f,0.13701399f,1.9501243f,0.7525059f};
static const float automax_partition_epoch_40_bias_layer1[4] = {
-4.2468414f,0.13701399f,1.9501243f,0.7525059f};
static const NN_CONFIG automax_partition_epoch_40 = {
    13,  // num_inputs
    4,  // num_outputs
    1,  // num_hidden_layers
    {
        48,
    },  // num_hidden_nodes
    {
        automax_partition_epoch_40_weights_layer0,
        automax_partition_epoch_40_weights_layer1,
    },  // weights
    {
        automax_partition_epoch_40_bias_layer0,
        automax_partition_epoch_40_bias_layer1,
    }  // bias
};

static const float automax_partition_epoch_50_weights_layer0[624] = {
30.862524f,-0.13991979f,0.008572281f,-72.84246f,0.06441412f,-0.039368473f,12.182501f,-4.4819274f,-5.644249f,18.622208f,-9.525795f,-0.0001701973f,0.0016626033f,0.944782f,-0.28413767f,0.03553711f,5.0368977f,0.111795425f,0.1849642f,-8.928808f,0.10838362f,-0.9793782f,3.705494f,1.5329561f,-0.200512f,-0.09144354f,-7.9392786f,0.09197242f,0.99032325f,16.729986f,0.37963507f,0.13974918f,-2.1166956f,1.4718578f,1.6829542f,-5.2802067f,-1.173842f,-0.10860732f,-0.07748921f,-0.11573832f,-0.14766468f,0.09714041f,0.17183375f,-0.29314387f,-0.21846044f,-0.6065587f,-0.04673486f,-0.14965479f,-0.2985496f,-0.09498934f,-0.003316415f,-0.13049372f,0.09367214f,-0.24770015f,0.11611038f,0.12924933f,-0.28080857f,0.027723959f,-0.23434965f,-0.036381677f,-0.13910675f,-0.026490992f,-0.33908778f,-0.0015675056f,-0.2814073f,-0.21652451f,-0.284739f,-0.4184068f,-5.5418744f,-0.00094511686f,0.061156683f,4.55673f,0.06663639f,-0.03176072f,-1.3820378f,-0.26446494f,-0.039210923f,-0.031871665f,-0.5296034f,-0.11097172f,-0.02870404f,-0.5269797f,-0.3280331f,-0.4043473f,-0.5609229f,-0.077914335f,0.07943954f,-0.42594722f,-0.49478745f,-0.026970768f,-0.16112827f,1.4494424f,0.09975001f,0.093353994f,4.054831f,0.10739327f,0.07532978f,2.3846045f,0.18877311f,-2.0696664f,-2.8372004f,-1.3221693f,-0.08797705f,-0.071083374f,-1.5036609f,0.25212604f,1.1662071f,0.80474466f,-1.562311f,-1.2130713f,0.20938024f,1.4807662f,3.1368277f,-2.075668f,0.77348465f,-0.12693243f,-0.98828375f,-4.51357f,-0.01871671f,0.05875643f,-0.83603716f,0.44491872f,0.4347612f,1.2538396f,0.34605783f,1.5192174f,-2.3589754f,-6.0654693f,-0.21897332f,-0.41198683f,-3.4607246f,0.5517136f,0.47809505f,1.2095346f,0.25769016f,0.25816187f,1.2740811f,-0.66076744f,0.5625736f,1.4631151f,-0.04243511f,-0.48341027f,-3.0674732f,-7.3840423f,0.16373022f,0.7132863f,8.749593f,0.3155098f,-0.6271554f,-5.873078f,-0.26014474f,0.16602877f,-2.7493205f,-0.11621475f,-0.14677297f,-0.075874574f,-0.23378813f,0.2148782f,-0.23135453f,0.25765264f,-0.31218228f,-0.17326295f,-0.27434385f,-0.2904284f,-0.13032165f,-0.091798216f,-0.19688407f,-0.092970744f,-0.15656151f,-3.1229036f,0.85064995f,-0.47589323f,1.9514229f,-0.05133207f,-0.64387256f,-1.0507139f,0.097644545f,0.97464424f,-2.065161f,-1.2878269f,-0.59913445f,-1.5733081f,-0.40368885f,-0.091157906f,0.37991455f,-0.73891985f,-0.022047713f,0.9348405f,-1.6783171f,-2.2500257f,0.00024373412f,-0.8376242f,-0.8039228f,-0.18084101f,-3.3407757f,-1.2553836f,0.9121562f,0.51340324f,-0.04128469f,-0.15893732f,-0.17166993f,-6.392373f,0.7736673f,-4.636017f,-0.8183623f,-1.4769063f,-4.0275826f,-3.696515f,-1.0158155f,0.024216404f,-1.1910278f,-0.055801176f,-0.08704872f,-0.9299282f,-1.6590587f,0.031115225f,-0.43711576f,-1.2448668f,-0.53516424f,-0.7330284f,-0.619904f,-0.23400378f,-0.10122648f,0.10331911f,-0.19931796f,-0.11761327f,-0.14110601f,0.09984136f,0.015753329f,0.03204629f,-0.01878047f,-0.29608992f,-0.05366382f,-0.18072847f,1.156485f,0.07224042f,0.73760617f,-0.2910815f,-0.090188436f,-0.68915534f,-2.5636268f,-2.2016075f,0.38971207f,0.5338506f,2.468171f,-14.739787f,-16.84505f,-2.0669641f,-1.7148155f,-1.2524781f,-1.817459f,0.09241844f,0.07004503f,0.29773617f,-1.4608462f,-0.02829162f,2.6311178f,-4.7421765f,-0.02408578f,-0.02686707f,-0.84283763f,-2.3335161f,-0.04159376f,0.076152556f,-0.09882266f,-0.3086037f,-1.7896843f,-1.642886f,0.21034506f,2.4957173f,2.0051236f,-0.077997774f,-0.13632892f,-0.6491103f,-0.0992396f,0.08617719f,-1.0664129f,-0.04063181f,-0.19312645f,-0.63909876f,-0.031597715f,-0.106430404f,-0.67503816f,-0.6978916f,-0.007604226f,-0.2299403f,0.23750427f,-0.15247947f,-2.837557f,5.227028f,0.060096875f,0.09624629f,-1.4108224f,0.23453388f,-0.20286863f,-2.627579f,3.7380016f,-0.05515218f,-0.08934902f,2.9058003f,3.4475558f,4.072738f,-0.80635583f,0.2809963f,0.34514397f,-3.2763114f,-2.6580374f,-0.24358849f,1.6311634f,2.731005f,-0.024470758f,-1.4952092f,0.37637308f,0.787646f,0.13740413f,-4.1087356f,-0.6412324f,-0.31703743f,1.0130228f,0.5573443f,1.8516829f,-0.82479316f,-3.5556855f,-0.18836293f,-0.06829171f,-0.6863779f,-0.12652557f,-0.00044877973f,-0.08863861f,-0.3378873f,-0.38858587f,-0.5543322f,-0.13380978f,-0.0819835f,-0.4445508f,-0.51126903f,0.0013975701f,-0.17817327f,-0.5105475f,0.028092526f,0.1657652f,-0.78180987f,-0.21719684f,-0.43912178f,-0.62658316f,-0.35109484f,-0.25948408f,0.18689576f,-0.3937011f,-0.2223855f,0.0033763351f,-4.074529f,1.1065056f,2.5296452f,-4.634422f,-2.8454776f,1.8565998f,-5.1948824f,-9.735174f,2.9919674f,-4.1564875f,-1.4945151f,0.008477488f,-7.648186f,1.0390037f,0.055843562f,0.8736144f,1.7852516f,-0.07988332f,-0.55327964f,-1.9417125f,-0.018364673f,-0.5209227f,-0.6264833f,0.027877752f,-0.0295346f,-0.7212484f,-11.1599655f,0.2670706f,-0.01225296f,8.511789f,0.11548222f,0.094437934f,2.6484487f,1.1014208f,-1.4539417f,2.1193795f,-2.0041819f,-0.055376504f,-0.050979003f,1.2055507f,-1.9308165f,0.3708518f,-2.0693467f,-0.08397547f,-0.25314537f,-1.0336418f,-0.7660088f,0.2529623f,0.4188255f,0.27525923f,-0.026269933f,-0.06696377f,-1.5205462f,2.9295177f,0.7781078f,-1.4453771f,0.38732365f,-0.52778995f,0.59104896f,-0.8290436f,-3.7464252f,-3.5142996f,-1.1011896f,-0.100175f,-0.1464108f,-0.065990865f,0.012508424f,0.04406628f,-0.90338844f,-0.20901354f,-0.35254845f,-0.22762732f,-0.12964678f,-0.5499805f,-0.51419f,-0.45977327f,0.0015356054f,-0.39853066f,-2.0157666f,3.5724423f,-0.057599436f,3.3465629f,-3.1343849f,-0.6819611f,-0.3600793f,-1.125496f,-0.8784216f,0.12621067f,-0.30206373f,-0.20302314f,-4.999691f,-0.33509138f,-0.10105982f,0.05463971f,-0.57113767f,-0.26633057f,-0.34297913f,-0.5841782f,-0.15784119f,-0.13536248f,-0.09556818f,-0.19921689f,-0.0016526843f,-0.14092661f,-0.83490515f,-0.15598324f,-0.17593227f,0.14664762f,0.15555938f,0.11333493f,1.37026f,0.28311488f,-1.9838747f,-0.6631585f,1.8843787f,-0.03068371f,-0.034410633f,-2.709521f,-0.018162742f,0.07525494f,-1.7227374f,0.19626564f,0.29887062f,2.5139968f,0.10290968f,0.6018568f,-1.4947591f,-8.46981f,-0.06861907f,-0.2437306f,-0.532349f,-0.008641284f,0.01624144f,-0.38863695f,-0.15922032f,-0.28367603f,-0.43648702f,-0.13069583f,-0.13096625f,-0.22327448f,-0.5236301f,-0.0022572621f,-0.33712953f,4.587467f,0.15772308f,-1.436377f,-17.591167f,-0.0007951392f,0.41166866f,-5.1569343f,1.4860939f,-3.2840796f,-3.0329723f,8.027157f,-0.12718253f,-0.15834017f,7.9260216f,-0.1778904f,0.097066276f,-25.078903f,0.19916774f,0.100567624f,1.7585257f,-0.067473084f,1.3777612f,-1.0595975f,-3.371485f,-0.06560184f,-0.018989284f,-1.2946436f,0.24658209f,-0.70339125f,1.4416654f,0.16867028f,-0.3465171f,-3.0497704f,0.16187325f,-0.60870916f,-1.0763662f,0.8469164f,-0.7798098f,-0.9308708f,0.6241753f,0.066851795f,-0.08103352f,0.5210895f,-0.9541586f,0.093162574f,-0.48686284f,0.116050586f,0.049579058f,0.2412776f,0.5922918f,-4.451047f,-0.03083378f,-0.41200083f,-0.0675626f,0.13041024f,0.040053003f,-0.4331429f,-0.3874457f,-0.17989978f,0.022066193f,-0.03563222f,-0.17992187f,-0.3841986f,0.0027691484f,-0.5833166f,-2.518571f,0.6011526f,-0.15240037f,3.8678627f,-1.0616001f,-1.0942943f,-1.2165194f,0.8859386f,0.16839942f,-0.12794966f,-0.21655853f,-0.6448136f,-0.88891876f,-2.612089f,0.6210788f,0.56865525f,5.2053843f,0.056184154f,-0.36195144f,-8.736954f,0.45510873f,-2.6316407f,-1.3643607f,-0.21922928f,-2.0755458f,-1.4192588f,-0.18629701f,-0.09714128f,-0.0558394f,-0.6560361f,-0.2667968f,-0.19304547f,-0.34095922f,-0.052559864f,-0.23520347f,-0.4001221f,-0.4029846f,-0.0018389479f,-0.20145358f,3.013642f,0.12405028f,-0.15498514f,-17.24581f,0.0060635f,-0.17426373f,0.9026821f,0.35255864f,0.0010557586f,2.4381013f,-2.8924403f,-0.14846241f,-0.07298666f,-1.6345549f,-0.081789225f,1.2133992f,1.6767482f,-0.62619156f,0.05795833f,-4.376316f,-1.2587789f,-0.57633054f,-2.5631378f,1.3513408f,-0.052965067f,-1.3762679f};
static const float automax_partition_epoch_50_weights_layer1[192] = {
0.008728669f,-0.39963585f,-0.6350356f,0.11797785f,0.21048623f,0.0061036046f,-0.08615963f,0.19554667f,-0.58642197f,-0.074436955f,-0.25100338f,1.7956486f,0.17980194f,0.06438391f,0.7964388f,1.3559998f,-0.04657744f,0.034107238f,0.22439183f,-0.06825306f,0.030357944f,-0.18375972f,-0.12639788f,-0.066138856f,-0.15562032f,-0.065236494f,0.08511715f,-0.22052619f,-1.8820704f,-0.31511238f,0.07606601f,-0.48675334f,0.15694866f,-1.8873736f,0.15943901f,-0.024011428f,-0.07747444f,0.12742387f,0.17836392f,0.005052384f,-0.14137404f,-0.11347672f,-0.16060299f,0.38223132f,1.60958f,0.072999805f,0.1118234f,0.086305186f,-0.00021764987f,-0.17097206f,-0.07631337f,-0.028578255f,0.30086336f,0.08583278f,0.08925493f,0.07391131f,0.059144598f,0.046163738f,-0.08553042f,0.29623026f,0.03086859f,-0.5789683f,-0.13184613f,-0.22302943f,-1.3249128f,0.26835036f,-0.3262776f,-0.04976741f,0.039138548f,-0.15074618f,0.024584142f,-0.07370037f,0.14864337f,0.02814505f,0.038084626f,-0.01920565f,-0.45732716f,-0.092146285f,0.15044348f,0.02792062f,0.12140957f,-0.02258969f,-0.11882054f,-0.032023463f,-0.06897598f,-0.081853524f,0.09099313f,-0.045280427f,-1.0198542f,-0.13792476f,-0.12083298f,1.2356853f,-0.27355543f,-0.1452482f,0.05863396f,-0.16514905f,-0.0096397465f,-0.02964245f,-0.010894937f,0.058709886f,-0.2611723f,0.09135834f,-0.13813454f,-0.028570706f,-0.0645251f,-0.12483751f,0.024300693f,-0.10505967f,-0.139098f,-0.2877079f,0.19139677f,-0.25222975f,-0.10399239f,-0.22358924f,-0.23502533f,-0.01510912f,0.1021347f,-0.20495792f,0.07555995f,-0.06684781f,0.09594616f,0.14192626f,0.017502198f,-0.008188465f,-0.036338966f,0.005107396f,0.101893425f,0.025289122f,0.046747874f,0.05972089f,-0.037041936f,-0.076440446f,-0.0145562f,-0.089214906f,0.011792459f,-0.115109004f,-0.018385312f,0.0396729f,0.041202527f,0.7432965f,-0.25794068f,0.104379594f,-0.045550413f,-0.3146053f,-0.015998231f,0.041576438f,0.003257145f,0.029735886f,0.25590947f,-0.0036211351f,0.034463305f,-0.087909155f,0.13910832f,0.14737129f,-0.043559264f,-0.16048558f,-0.27998954f,0.31537256f,-0.33474374f,-0.4495731f,-0.086657345f,-0.19543314f,0.5968806f,-0.0031118284f,0.19226196f,-0.08580485f,0.103136346f,-0.014143311f,-0.080475144f,-0.079977445f,0.052096415f,0.10849121f,0.17474425f,0.038689584f,-0.031578433f,-0.021832922f,-0.095091365f,0.19195238f,0.059194144f,-0.15586631f,-0.07037825f,0.07081452f,0.08252307f,-0.096295476f,0.037569676f,0.17934974f,0.023965355f,0.25718102f,-0.38429266f,-0.17702496f,-0.07468488f,0.108810134f};
static const float automax_partition_epoch_50_bias_layer0[4] = {
-4.2717376f,0.1254329f,1.9503012f,0.7279634f};
static const float automax_partition_epoch_50_bias_layer1[4] = {
-4.2717376f,0.1254329f,1.9503012f,0.7279634f};
static const NN_CONFIG automax_partition_epoch_50 = {
    13,  // num_inputs
    4,  // num_outputs
    1,  // num_hidden_layers
    {
        48,
    },  // num_hidden_nodes
    {
        automax_partition_epoch_50_weights_layer0,
        automax_partition_epoch_50_weights_layer1,
    },  // weights
    {
        automax_partition_epoch_50_bias_layer0,
        automax_partition_epoch_50_bias_layer1,
    }  // bias
};


#undef FEATURES
#undef HIDDEN_NODES

#ifdef __cplusplus
}  // extern "C"
#endif

#endif  // AOM_AV1_ENCODER_PARTITION_MODEL_WEIGHTS_H_
